digraph Tree {
node [shape=box, fontname="helvetica"] ;
edge [fontname="helvetica"] ;
0 [label="Glucose <= 143.5\ngini = 0.457\nsamples = 576\nvalue = [372, 204]"] ;
1 [label="BMI <= 26.3\ngini = 0.372\nsamples = 445\nvalue = [335, 110]"] ;
0 -> 1 [labeldistance=2.5, labelangle=45, headlabel="True"] ;
2 [label="Age <= 53.5\ngini = 0.052\nsamples = 112\nvalue = [109, 3]"] ;
1 -> 2 ;
3 [label="DiabetesPedigreeFunction <= 0.672\ngini = 0.02\nsamples = 101\nvalue = [100, 1]"] ;
2 -> 3 ;
4 [label="gini = 0.0\nsamples = 87\nvalue = [87, 0]"] ;
3 -> 4 ;
5 [label="DiabetesPedigreeFunction <= 0.688\ngini = 0.133\nsamples = 14\nvalue = [13, 1]"] ;
3 -> 5 ;
6 [label="gini = 0.0\nsamples = 1\nvalue = [0, 1]"] ;
5 -> 6 ;
7 [label="gini = 0.0\nsamples = 13\nvalue = [13, 0]"] ;
5 -> 7 ;
8 [label="BloodPressure <= 93.0\ngini = 0.298\nsamples = 11\nvalue = [9, 2]"] ;
2 -> 8 ;
9 [label="Glucose <= 131.5\ngini = 0.18\nsamples = 10\nvalue = [9, 1]"] ;
8 -> 9 ;
10 [label="gini = 0.0\nsamples = 8\nvalue = [8, 0]"] ;
9 -> 10 ;
11 [label="DiabetesPedigreeFunction <= 0.458\ngini = 0.5\nsamples = 2\nvalue = [1, 1]"] ;
9 -> 11 ;
12 [label="gini = 0.0\nsamples = 1\nvalue = [0, 1]"] ;
11 -> 12 ;
13 [label="gini = 0.0\nsamples = 1\nvalue = [1, 0]"] ;
11 -> 13 ;
14 [label="gini = 0.0\nsamples = 1\nvalue = [0, 1]"] ;
8 -> 14 ;
15 [label="Age <= 28.5\ngini = 0.436\nsamples = 333\nvalue = [226, 107]"] ;
1 -> 15 ;
16 [label="Glucose <= 127.5\ngini = 0.305\nsamples = 165\nvalue = [134, 31]"] ;
15 -> 16 ;
17 [label="BMI <= 45.4\ngini = 0.219\nsamples = 136\nvalue = [119, 17]"] ;
16 -> 17 ;
18 [label="SkinThickness <= 5.0\ngini = 0.19\nsamples = 132\nvalue = [118, 14]"] ;
17 -> 18 ;
19 [label="Glucose <= 110.5\ngini = 0.42\nsamples = 20\nvalue = [14, 6]"] ;
18 -> 19 ;
20 [label="gini = 0.0\nsamples = 10\nvalue = [10, 0]"] ;
19 -> 20 ;
21 [label="BloodPressure <= 73.0\ngini = 0.48\nsamples = 10\nvalue = [4, 6]"] ;
19 -> 21 ;
22 [label="BloodPressure <= 53.0\ngini = 0.444\nsamples = 6\nvalue = [4, 2]"] ;
21 -> 22 ;
23 [label="gini = 0.0\nsamples = 2\nvalue = [0, 2]"] ;
22 -> 23 ;
24 [label="gini = 0.0\nsamples = 4\nvalue = [4, 0]"] ;
22 -> 24 ;
25 [label="gini = 0.0\nsamples = 4\nvalue = [0, 4]"] ;
21 -> 25 ;
26 [label="SkinThickness <= 29.5\ngini = 0.133\nsamples = 112\nvalue = [104, 8]"] ;
18 -> 26 ;
27 [label="gini = 0.0\nsamples = 59\nvalue = [59, 0]"] ;
26 -> 27 ;
28 [label="DiabetesPedigreeFunction <= 0.5\ngini = 0.256\nsamples = 53\nvalue = [45, 8]"] ;
26 -> 28 ;
29 [label="Glucose <= 78.5\ngini = 0.111\nsamples = 34\nvalue = [32, 2]"] ;
28 -> 29 ;
30 [label="gini = 0.0\nsamples = 1\nvalue = [0, 1]"] ;
29 -> 30 ;
31 [label="SkinThickness <= 30.5\ngini = 0.059\nsamples = 33\nvalue = [32, 1]"] ;
29 -> 31 ;
32 [label="Age <= 24.0\ngini = 0.375\nsamples = 4\nvalue = [3, 1]"] ;
31 -> 32 ;
33 [label="gini = 0.0\nsamples = 3\nvalue = [3, 0]"] ;
32 -> 33 ;
34 [label="gini = 0.0\nsamples = 1\nvalue = [0, 1]"] ;
32 -> 34 ;
35 [label="gini = 0.0\nsamples = 29\nvalue = [29, 0]"] ;
31 -> 35 ;
36 [label="BloodPressure <= 69.0\ngini = 0.432\nsamples = 19\nvalue = [13, 6]"] ;
28 -> 36 ;
37 [label="BloodPressure <= 61.0\ngini = 0.5\nsamples = 12\nvalue = [6, 6]"] ;
36 -> 37 ;
38 [label="gini = 0.0\nsamples = 5\nvalue = [5, 0]"] ;
37 -> 38 ;
39 [label="Pregnancies <= 0.5\ngini = 0.245\nsamples = 7\nvalue = [1, 6]"] ;
37 -> 39 ;
40 [label="BMI <= 36.7\ngini = 0.5\nsamples = 2\nvalue = [1, 1]"] ;
39 -> 40 ;
41 [label="gini = 0.0\nsamples = 1\nvalue = [0, 1]"] ;
40 -> 41 ;
42 [label="gini = 0.0\nsamples = 1\nvalue = [1, 0]"] ;
40 -> 42 ;
43 [label="gini = 0.0\nsamples = 5\nvalue = [0, 5]"] ;
39 -> 43 ;
44 [label="gini = 0.0\nsamples = 7\nvalue = [7, 0]"] ;
36 -> 44 ;
45 [label="Age <= 22.5\ngini = 0.375\nsamples = 4\nvalue = [1, 3]"] ;
17 -> 45 ;
46 [label="gini = 0.0\nsamples = 1\nvalue = [1, 0]"] ;
45 -> 46 ;
47 [label="gini = 0.0\nsamples = 3\nvalue = [0, 3]"] ;
45 -> 47 ;
48 [label="BloodPressure <= 73.0\ngini = 0.499\nsamples = 29\nvalue = [15, 14]"] ;
16 -> 48 ;
49 [label="BMI <= 28.8\ngini = 0.444\nsamples = 18\nvalue = [6, 12]"] ;
48 -> 49 ;
50 [label="Glucose <= 129.5\ngini = 0.32\nsamples = 5\nvalue = [4, 1]"] ;
49 -> 50 ;
51 [label="gini = 0.0\nsamples = 1\nvalue = [0, 1]"] ;
50 -> 51 ;
52 [label="gini = 0.0\nsamples = 4\nvalue = [4, 0]"] ;
50 -> 52 ;
53 [label="Glucose <= 129.5\ngini = 0.26\nsamples = 13\nvalue = [2, 11]"] ;
49 -> 53 ;
54 [label="Insulin <= 95.0\ngini = 0.5\nsamples = 4\nvalue = [2, 2]"] ;
53 -> 54 ;
55 [label="gini = 0.0\nsamples = 2\nvalue = [2, 0]"] ;
54 -> 55 ;
56 [label="gini = 0.0\nsamples = 2\nvalue = [0, 2]"] ;
54 -> 56 ;
57 [label="gini = 0.0\nsamples = 9\nvalue = [0, 9]"] ;
53 -> 57 ;
58 [label="BMI <= 43.2\ngini = 0.298\nsamples = 11\nvalue = [9, 2]"] ;
48 -> 58 ;
59 [label="gini = 0.0\nsamples = 9\nvalue = [9, 0]"] ;
58 -> 59 ;
60 [label="gini = 0.0\nsamples = 2\nvalue = [0, 2]"] ;
58 -> 60 ;
61 [label="DiabetesPedigreeFunction <= 0.528\ngini = 0.495\nsamples = 168\nvalue = [92, 76]"] ;
15 -> 61 ;
62 [label="BloodPressure <= 67.0\ngini = 0.454\nsamples = 115\nvalue = [75, 40]"] ;
61 -> 62 ;
63 [label="Glucose <= 111.0\ngini = 0.491\nsamples = 23\nvalue = [10, 13]"] ;
62 -> 63 ;
64 [label="Age <= 32.5\ngini = 0.444\nsamples = 12\nvalue = [8, 4]"] ;
63 -> 64 ;
65 [label="Pregnancies <= 6.5\ngini = 0.49\nsamples = 7\nvalue = [3, 4]"] ;
64 -> 65 ;
66 [label="DiabetesPedigreeFunction <= 0.256\ngini = 0.375\nsamples = 4\nvalue = [3, 1]"] ;
65 -> 66 ;
67 [label="gini = 0.0\nsamples = 1\nvalue = [0, 1]"] ;
66 -> 67 ;
68 [label="gini = 0.0\nsamples = 3\nvalue = [3, 0]"] ;
66 -> 68 ;
69 [label="gini = 0.0\nsamples = 3\nvalue = [0, 3]"] ;
65 -> 69 ;
70 [label="gini = 0.0\nsamples = 5\nvalue = [5, 0]"] ;
64 -> 70 ;
71 [label="DiabetesPedigreeFunction <= 0.484\ngini = 0.298\nsamples = 11\nvalue = [2, 9]"] ;
63 -> 71 ;
72 [label="DiabetesPedigreeFunction <= 0.168\ngini = 0.18\nsamples = 10\nvalue = [1, 9]"] ;
71 -> 72 ;
73 [label="BMI <= 35.1\ngini = 0.5\nsamples = 2\nvalue = [1, 1]"] ;
72 -> 73 ;
74 [label="gini = 0.0\nsamples = 1\nvalue = [0, 1]"] ;
73 -> 74 ;
75 [label="gini = 0.0\nsamples = 1\nvalue = [1, 0]"] ;
73 -> 75 ;
76 [label="gini = 0.0\nsamples = 8\nvalue = [0, 8]"] ;
72 -> 76 ;
77 [label="gini = 0.0\nsamples = 1\nvalue = [1, 0]"] ;
71 -> 77 ;
78 [label="Insulin <= 123.5\ngini = 0.415\nsamples = 92\nvalue = [65, 27]"] ;
62 -> 78 ;
79 [label="DiabetesPedigreeFunction <= 0.255\ngini = 0.355\nsamples = 78\nvalue = [60, 18]"] ;
78 -> 79 ;
80 [label="Pregnancies <= 4.5\ngini = 0.193\nsamples = 37\nvalue = [33, 4]"] ;
79 -> 80 ;
81 [label="gini = 0.0\nsamples = 16\nvalue = [16, 0]"] ;
80 -> 81 ;
82 [label="DiabetesPedigreeFunction <= 0.122\ngini = 0.308\nsamples = 21\nvalue = [17, 4]"] ;
80 -> 82 ;
83 [label="gini = 0.0\nsamples = 1\nvalue = [0, 1]"] ;
82 -> 83 ;
84 [label="Age <= 39.5\ngini = 0.255\nsamples = 20\nvalue = [17, 3]"] ;
82 -> 84 ;
85 [label="BMI <= 29.9\ngini = 0.444\nsamples = 6\nvalue = [4, 2]"] ;
84 -> 85 ;
86 [label="gini = 0.0\nsamples = 3\nvalue = [3, 0]"] ;
85 -> 86 ;
87 [label="Insulin <= 34.0\ngini = 0.444\nsamples = 3\nvalue = [1, 2]"] ;
85 -> 87 ;
88 [label="gini = 0.0\nsamples = 2\nvalue = [0, 2]"] ;
87 -> 88 ;
89 [label="gini = 0.0\nsamples = 1\nvalue = [1, 0]"] ;
87 -> 89 ;
90 [label="BMI <= 41.2\ngini = 0.133\nsamples = 14\nvalue = [13, 1]"] ;
84 -> 90 ;
91 [label="gini = 0.0\nsamples = 12\nvalue = [12, 0]"] ;
90 -> 91 ;
92 [label="Glucose <= 104.0\ngini = 0.5\nsamples = 2\nvalue = [1, 1]"] ;
90 -> 92 ;
93 [label="gini = 0.0\nsamples = 1\nvalue = [1, 0]"] ;
92 -> 93 ;
94 [label="gini = 0.0\nsamples = 1\nvalue = [0, 1]"] ;
92 -> 94 ;
95 [label="BloodPressure <= 81.0\ngini = 0.45\nsamples = 41\nvalue = [27, 14]"] ;
79 -> 95 ;
96 [label="Pregnancies <= 3.5\ngini = 0.499\nsamples = 29\nvalue = [15, 14]"] ;
95 -> 96 ;
97 [label="gini = 0.0\nsamples = 5\nvalue = [0, 5]"] ;
96 -> 97 ;
98 [label="Insulin <= 11.0\ngini = 0.469\nsamples = 24\nvalue = [15, 9]"] ;
96 -> 98 ;
99 [label="DiabetesPedigreeFunction <= 0.261\ngini = 0.5\nsamples = 18\nvalue = [9, 9]"] ;
98 -> 99 ;
100 [label="gini = 0.0\nsamples = 3\nvalue = [3, 0]"] ;
99 -> 100 ;
101 [label="Glucose <= 91.0\ngini = 0.48\nsamples = 15\nvalue = [6, 9]"] ;
99 -> 101 ;
102 [label="SkinThickness <= 28.0\ngini = 0.408\nsamples = 7\nvalue = [5, 2]"] ;
101 -> 102 ;
103 [label="gini = 0.0\nsamples = 4\nvalue = [4, 0]"] ;
102 -> 103 ;
104 [label="DiabetesPedigreeFunction <= 0.401\ngini = 0.444\nsamples = 3\nvalue = [1, 2]"] ;
102 -> 104 ;
105 [label="gini = 0.0\nsamples = 2\nvalue = [0, 2]"] ;
104 -> 105 ;
106 [label="gini = 0.0\nsamples = 1\nvalue = [1, 0]"] ;
104 -> 106 ;
107 [label="BloodPressure <= 70.0\ngini = 0.219\nsamples = 8\nvalue = [1, 7]"] ;
101 -> 107 ;
108 [label="gini = 0.0\nsamples = 1\nvalue = [1, 0]"] ;
107 -> 108 ;
109 [label="gini = 0.0\nsamples = 7\nvalue = [0, 7]"] ;
107 -> 109 ;
110 [label="gini = 0.0\nsamples = 6\nvalue = [6, 0]"] ;
98 -> 110 ;
111 [label="gini = 0.0\nsamples = 12\nvalue = [12, 0]"] ;
95 -> 111 ;
112 [label="Age <= 38.5\ngini = 0.459\nsamples = 14\nvalue = [5, 9]"] ;
78 -> 112 ;
113 [label="BloodPressure <= 81.0\ngini = 0.444\nsamples = 6\nvalue = [4, 2]"] ;
112 -> 113 ;
114 [label="gini = 0.0\nsamples = 3\nvalue = [3, 0]"] ;
113 -> 114 ;
115 [label="Insulin <= 165.0\ngini = 0.444\nsamples = 3\nvalue = [1, 2]"] ;
113 -> 115 ;
116 [label="gini = 0.0\nsamples = 1\nvalue = [1, 0]"] ;
115 -> 116 ;
117 [label="gini = 0.0\nsamples = 2\nvalue = [0, 2]"] ;
115 -> 117 ;
118 [label="Age <= 54.5\ngini = 0.219\nsamples = 8\nvalue = [1, 7]"] ;
112 -> 118 ;
119 [label="gini = 0.0\nsamples = 7\nvalue = [0, 7]"] ;
118 -> 119 ;
120 [label="gini = 0.0\nsamples = 1\nvalue = [1, 0]"] ;
118 -> 120 ;
121 [label="Pregnancies <= 7.5\ngini = 0.436\nsamples = 53\nvalue = [17, 36]"] ;
61 -> 121 ;
122 [label="SkinThickness <= 27.5\ngini = 0.488\nsamples = 38\nvalue = [16, 22]"] ;
121 -> 122 ;
123 [label="BMI <= 32.45\ngini = 0.48\nsamples = 15\nvalue = [9, 6]"] ;
122 -> 123 ;
124 [label="DiabetesPedigreeFunction <= 0.704\ngini = 0.496\nsamples = 11\nvalue = [5, 6]"] ;
123 -> 124 ;
125 [label="gini = 0.0\nsamples = 3\nvalue = [3, 0]"] ;
124 -> 125 ;
126 [label="SkinThickness <= 24.0\ngini = 0.375\nsamples = 8\nvalue = [2, 6]"] ;
124 -> 126 ;
127 [label="BMI <= 27.35\ngini = 0.245\nsamples = 7\nvalue = [1, 6]"] ;
126 -> 127 ;
128 [label="Insulin <= 88.0\ngini = 0.5\nsamples = 2\nvalue = [1, 1]"] ;
127 -> 128 ;
129 [label="gini = 0.0\nsamples = 1\nvalue = [1, 0]"] ;
128 -> 129 ;
130 [label="gini = 0.0\nsamples = 1\nvalue = [0, 1]"] ;
128 -> 130 ;
131 [label="gini = 0.0\nsamples = 5\nvalue = [0, 5]"] ;
127 -> 131 ;
132 [label="gini = 0.0\nsamples = 1\nvalue = [1, 0]"] ;
126 -> 132 ;
133 [label="gini = 0.0\nsamples = 4\nvalue = [4, 0]"] ;
123 -> 133 ;
134 [label="SkinThickness <= 47.5\ngini = 0.423\nsamples = 23\nvalue = [7, 16]"] ;
122 -> 134 ;
135 [label="BMI <= 31.25\ngini = 0.363\nsamples = 21\nvalue = [5, 16]"] ;
134 -> 135 ;
136 [label="BMI <= 28.2\ngini = 0.375\nsamples = 4\nvalue = [3, 1]"] ;
135 -> 136 ;
137 [label="gini = 0.0\nsamples = 1\nvalue = [0, 1]"] ;
136 -> 137 ;
138 [label="gini = 0.0\nsamples = 3\nvalue = [3, 0]"] ;
136 -> 138 ;
139 [label="BMI <= 46.05\ngini = 0.208\nsamples = 17\nvalue = [2, 15]"] ;
135 -> 139 ;
140 [label="Insulin <= 225.0\ngini = 0.117\nsamples = 16\nvalue = [1, 15]"] ;
139 -> 140 ;
141 [label="gini = 0.0\nsamples = 14\nvalue = [0, 14]"] ;
140 -> 141 ;
142 [label="BloodPressure <= 78.0\ngini = 0.5\nsamples = 2\nvalue = [1, 1]"] ;
140 -> 142 ;
143 [label="gini = 0.0\nsamples = 1\nvalue = [1, 0]"] ;
142 -> 143 ;
144 [label="gini = 0.0\nsamples = 1\nvalue = [0, 1]"] ;
142 -> 144 ;
145 [label="gini = 0.0\nsamples = 1\nvalue = [1, 0]"] ;
139 -> 145 ;
146 [label="gini = 0.0\nsamples = 2\nvalue = [2, 0]"] ;
134 -> 146 ;
147 [label="DiabetesPedigreeFunction <= 1.361\ngini = 0.124\nsamples = 15\nvalue = [1, 14]"] ;
121 -> 147 ;
148 [label="gini = 0.0\nsamples = 14\nvalue = [0, 14]"] ;
147 -> 148 ;
149 [label="gini = 0.0\nsamples = 1\nvalue = [1, 0]"] ;
147 -> 149 ;
150 [label="BMI <= 29.85\ngini = 0.405\nsamples = 131\nvalue = [37, 94]"] ;
0 -> 150 [labeldistance=2.5, labelangle=-45, headlabel="False"] ;
151 [label="Insulin <= 14.5\ngini = 0.494\nsamples = 27\nvalue = [15, 12]"] ;
150 -> 151 ;
152 [label="Glucose <= 191.5\ngini = 0.337\nsamples = 14\nvalue = [11, 3]"] ;
151 -> 152 ;
153 [label="BloodPressure <= 25.0\ngini = 0.165\nsamples = 11\nvalue = [10, 1]"] ;
152 -> 153 ;
154 [label="gini = 0.0\nsamples = 1\nvalue = [0, 1]"] ;
153 -> 154 ;
155 [label="gini = 0.0\nsamples = 10\nvalue = [10, 0]"] ;
153 -> 155 ;
156 [label="Age <= 63.0\ngini = 0.444\nsamples = 3\nvalue = [1, 2]"] ;
152 -> 156 ;
157 [label="gini = 0.0\nsamples = 2\nvalue = [0, 2]"] ;
156 -> 157 ;
158 [label="gini = 0.0\nsamples = 1\nvalue = [1, 0]"] ;
156 -> 158 ;
159 [label="DiabetesPedigreeFunction <= 0.286\ngini = 0.426\nsamples = 13\nvalue = [4, 9]"] ;
151 -> 159 ;
160 [label="SkinThickness <= 30.0\ngini = 0.375\nsamples = 4\nvalue = [3, 1]"] ;
159 -> 160 ;
161 [label="gini = 0.0\nsamples = 3\nvalue = [3, 0]"] ;
160 -> 161 ;
162 [label="gini = 0.0\nsamples = 1\nvalue = [0, 1]"] ;
160 -> 162 ;
163 [label="DiabetesPedigreeFunction <= 0.785\ngini = 0.198\nsamples = 9\nvalue = [1, 8]"] ;
159 -> 163 ;
164 [label="gini = 0.0\nsamples = 8\nvalue = [0, 8]"] ;
163 -> 164 ;
165 [label="gini = 0.0\nsamples = 1\nvalue = [1, 0]"] ;
163 -> 165 ;
166 [label="Glucose <= 165.5\ngini = 0.334\nsamples = 104\nvalue = [22, 82]"] ;
150 -> 166 ;
167 [label="Insulin <= 250.0\ngini = 0.436\nsamples = 56\nvalue = [18, 38]"] ;
166 -> 167 ;
168 [label="Pregnancies <= 6.5\ngini = 0.346\nsamples = 45\nvalue = [10, 35]"] ;
167 -> 168 ;
169 [label="Insulin <= 33.5\ngini = 0.453\nsamples = 26\nvalue = [9, 17]"] ;
168 -> 169 ;
170 [label="DiabetesPedigreeFunction <= 1.502\ngini = 0.291\nsamples = 17\nvalue = [3, 14]"] ;
169 -> 170 ;
171 [label="Glucose <= 144.5\ngini = 0.219\nsamples = 16\nvalue = [2, 14]"] ;
170 -> 171 ;
172 [label="gini = 0.0\nsamples = 1\nvalue = [1, 0]"] ;
171 -> 172 ;
173 [label="Age <= 23.0\ngini = 0.124\nsamples = 15\nvalue = [1, 14]"] ;
171 -> 173 ;
174 [label="Age <= 21.5\ngini = 0.5\nsamples = 2\nvalue = [1, 1]"] ;
173 -> 174 ;
175 [label="gini = 0.0\nsamples = 1\nvalue = [0, 1]"] ;
174 -> 175 ;
176 [label="gini = 0.0\nsamples = 1\nvalue = [1, 0]"] ;
174 -> 176 ;
177 [label="gini = 0.0\nsamples = 13\nvalue = [0, 13]"] ;
173 -> 177 ;
178 [label="gini = 0.0\nsamples = 1\nvalue = [1, 0]"] ;
170 -> 178 ;
179 [label="DiabetesPedigreeFunction <= 0.695\ngini = 0.444\nsamples = 9\nvalue = [6, 3]"] ;
169 -> 179 ;
180 [label="SkinThickness <= 44.5\ngini = 0.245\nsamples = 7\nvalue = [6, 1]"] ;
179 -> 180 ;
181 [label="gini = 0.0\nsamples = 6\nvalue = [6, 0]"] ;
180 -> 181 ;
182 [label="gini = 0.0\nsamples = 1\nvalue = [0, 1]"] ;
180 -> 182 ;
183 [label="gini = 0.0\nsamples = 2\nvalue = [0, 2]"] ;
179 -> 183 ;
184 [label="DiabetesPedigreeFunction <= 1.088\ngini = 0.1\nsamples = 19\nvalue = [1, 18]"] ;
168 -> 184 ;
185 [label="gini = 0.0\nsamples = 17\nvalue = [0, 17]"] ;
184 -> 185 ;
186 [label="Pregnancies <= 12.0\ngini = 0.5\nsamples = 2\nvalue = [1, 1]"] ;
184 -> 186 ;
187 [label="gini = 0.0\nsamples = 1\nvalue = [0, 1]"] ;
186 -> 187 ;
188 [label="gini = 0.0\nsamples = 1\nvalue = [1, 0]"] ;
186 -> 188 ;
189 [label="Glucose <= 151.5\ngini = 0.397\nsamples = 11\nvalue = [8, 3]"] ;
167 -> 189 ;
190 [label="BMI <= 33.35\ngini = 0.48\nsamples = 5\nvalue = [2, 3]"] ;
189 -> 190 ;
191 [label="gini = 0.0\nsamples = 2\nvalue = [0, 2]"] ;
190 -> 191 ;
192 [label="BMI <= 38.35\ngini = 0.444\nsamples = 3\nvalue = [2, 1]"] ;
190 -> 192 ;
193 [label="gini = 0.0\nsamples = 2\nvalue = [2, 0]"] ;
192 -> 193 ;
194 [label="gini = 0.0\nsamples = 1\nvalue = [0, 1]"] ;
192 -> 194 ;
195 [label="gini = 0.0\nsamples = 6\nvalue = [6, 0]"] ;
189 -> 195 ;
196 [label="DiabetesPedigreeFunction <= 1.428\ngini = 0.153\nsamples = 48\nvalue = [4, 44]"] ;
166 -> 196 ;
197 [label="BloodPressure <= 69.0\ngini = 0.085\nsamples = 45\nvalue = [2, 43]"] ;
196 -> 197 ;
198 [label="BMI <= 31.05\ngini = 0.278\nsamples = 12\nvalue = [2, 10]"] ;
197 -> 198 ;
199 [label="gini = 0.0\nsamples = 1\nvalue = [1, 0]"] ;
198 -> 199 ;
200 [label="DiabetesPedigreeFunction <= 0.277\ngini = 0.165\nsamples = 11\nvalue = [1, 10]"] ;
198 -> 200 ;
201 [label="Pregnancies <= 4.0\ngini = 0.444\nsamples = 3\nvalue = [1, 2]"] ;
200 -> 201 ;
202 [label="gini = 0.0\nsamples = 1\nvalue = [1, 0]"] ;
201 -> 202 ;
203 [label="gini = 0.0\nsamples = 2\nvalue = [0, 2]"] ;
201 -> 203 ;
204 [label="gini = 0.0\nsamples = 8\nvalue = [0, 8]"] ;
200 -> 204 ;
205 [label="gini = 0.0\nsamples = 33\nvalue = [0, 33]"] ;
197 -> 205 ;
206 [label="Age <= 28.0\ngini = 0.444\nsamples = 3\nvalue = [2, 1]"] ;
196 -> 206 ;
207 [label="gini = 0.0\nsamples = 1\nvalue = [0, 1]"] ;
206 -> 207 ;
208 [label="gini = 0.0\nsamples = 2\nvalue = [2, 0]"] ;
206 -> 208 ;
}
